digraph Tree {
node [shape=box, style="filled, rounded", color="black", fontname=helvetica] ;
edge [fontname=helvetica] ;
0 [label="a <= 0.05\ngini = 0.73\nsamples = 95\nvalue = [44, 60, 13, 13, 8, 11]\nclass = 2", fillcolor="#9de53927"] ;
1 [label="b <= -0.46\ngini = 0.61\nsamples = 70\nvalue = [44, 47, 13, 0, 0, 1]\nclass = 2", fillcolor="#9de5390d"] ;
0 -> 1 [labeldistance=2.5, labelangle=45, headlabel="True"] ;
2 [label="a <= -0.64\ngini = 0.31\nsamples = 22\nvalue = [27, 3, 3, 0, 0, 0]\nclass = 1", fillcolor="#e58139cc"] ;
1 -> 2 ;
3 [label="b <= -0.68\ngini = 0.48\nsamples = 12\nvalue = [13, 3, 3, 0, 0, 0]\nclass = 1", fillcolor="#e581399f"] ;
2 -> 3 ;
4 [label="a <= -1.19\ngini = 0.61\nsamples = 5\nvalue = [3, 3, 1, 0, 0, 0]\nclass = 1", fillcolor="#e5813900"] ;
3 -> 4 ;
5 [label="gini = 0.0\nsamples = 1\nvalue = [2, 0, 0, 0, 0, 0]\nclass = 1", fillcolor="#e58139ff"] ;
4 -> 5 ;
6 [label="b <= -0.9\ngini = 0.56\nsamples = 4\nvalue = [1, 3, 1, 0, 0, 0]\nclass = 2", fillcolor="#9de5397f"] ;
4 -> 6 ;
7 [label="gini = 0.0\nsamples = 1\nvalue = [0, 2, 0, 0, 0, 0]\nclass = 2", fillcolor="#9de539ff"] ;
6 -> 7 ;
8 [label="a <= -0.82\ngini = 0.67\nsamples = 3\nvalue = [1, 1, 1, 0, 0, 0]\nclass = 1", fillcolor="#e5813900"] ;
6 -> 8 ;
9 [label="gini = 0.0\nsamples = 1\nvalue = [0, 1, 0, 0, 0, 0]\nclass = 2", fillcolor="#9de539ff"] ;
8 -> 9 ;
10 [label="a <= -0.68\ngini = 0.5\nsamples = 2\nvalue = [1, 0, 1, 0, 0, 0]\nclass = 1", fillcolor="#e5813900"] ;
8 -> 10 ;
11 [label="gini = 0.0\nsamples = 1\nvalue = [1, 0, 0, 0, 0, 0]\nclass = 1", fillcolor="#e58139ff"] ;
10 -> 11 ;
12 [label="gini = 0.0\nsamples = 1\nvalue = [0, 0, 1, 0, 0, 0]\nclass = 3", fillcolor="#39e581ff"] ;
10 -> 12 ;
13 [label="a <= -0.69\ngini = 0.28\nsamples = 7\nvalue = [10, 0, 2, 0, 0, 0]\nclass = 1", fillcolor="#e58139cc"] ;
3 -> 13 ;
14 [label="b <= -0.61\ngini = 0.17\nsamples = 6\nvalue = [10, 0, 1, 0, 0, 0]\nclass = 1", fillcolor="#e58139e6"] ;
13 -> 14 ;
15 [label="a <= -0.81\ngini = 0.32\nsamples = 3\nvalue = [4, 0, 1, 0, 0, 0]\nclass = 1", fillcolor="#e58139bf"] ;
14 -> 15 ;
16 [label="gini = 0.0\nsamples = 2\nvalue = [4, 0, 0, 0, 0, 0]\nclass = 1", fillcolor="#e58139ff"] ;
15 -> 16 ;
17 [label="gini = 0.0\nsamples = 1\nvalue = [0, 0, 1, 0, 0, 0]\nclass = 3", fillcolor="#39e581ff"] ;
15 -> 17 ;
18 [label="gini = 0.0\nsamples = 3\nvalue = [6, 0, 0, 0, 0, 0]\nclass = 1", fillcolor="#e58139ff"] ;
14 -> 18 ;
19 [label="gini = 0.0\nsamples = 1\nvalue = [0, 0, 1, 0, 0, 0]\nclass = 3", fillcolor="#39e581ff"] ;
13 -> 19 ;
20 [label="gini = 0.0\nsamples = 10\nvalue = [14, 0, 0, 0, 0, 0]\nclass = 1", fillcolor="#e58139ff"] ;
2 -> 20 ;
21 [label="a <= -1.01\ngini = 0.55\nsamples = 48\nvalue = [17, 44, 10, 0, 0, 1]\nclass = 2", fillcolor="#9de5397d"] ;
1 -> 21 ;
22 [label="b <= 0.25\ngini = 0.36\nsamples = 31\nvalue = [8, 36, 1, 0, 0, 1]\nclass = 2", fillcolor="#9de539bc"] ;
21 -> 22 ;
23 [label="a <= -1.33\ngini = 0.28\nsamples = 28\nvalue = [6, 35, 1, 0, 0, 0]\nclass = 2", fillcolor="#9de539cd"] ;
22 -> 23 ;
24 [label="gini = 0.0\nsamples = 7\nvalue = [0, 14, 0, 0, 0, 0]\nclass = 2", fillcolor="#9de539ff"] ;
23 -> 24 ;
25 [label="a <= -1.3\ngini = 0.39\nsamples = 21\nvalue = [6, 21, 1, 0, 0, 0]\nclass = 2", fillcolor="#9de539ae"] ;
23 -> 25 ;
26 [label="a <= -1.31\ngini = 0.44\nsamples = 3\nvalue = [2, 1, 0, 0, 0, 0]\nclass = 1", fillcolor="#e581397f"] ;
25 -> 26 ;
27 [label="gini = 0.0\nsamples = 1\nvalue = [1, 0, 0, 0, 0, 0]\nclass = 1", fillcolor="#e58139ff"] ;
26 -> 27 ;
28 [label="b <= -0.25\ngini = 0.5\nsamples = 2\nvalue = [1, 1, 0, 0, 0, 0]\nclass = 1", fillcolor="#e5813900"] ;
26 -> 28 ;
29 [label="gini = 0.0\nsamples = 1\nvalue = [0, 1, 0, 0, 0, 0]\nclass = 2", fillcolor="#9de539ff"] ;
28 -> 29 ;
30 [label="gini = 0.0\nsamples = 1\nvalue = [1, 0, 0, 0, 0, 0]\nclass = 1", fillcolor="#e58139ff"] ;
28 -> 30 ;
31 [label="a <= -1.11\ngini = 0.33\nsamples = 18\nvalue = [4, 20, 1, 0, 0, 0]\nclass = 2", fillcolor="#9de539c2"] ;
25 -> 31 ;
32 [label="b <= -0.17\ngini = 0.21\nsamples = 13\nvalue = [2, 15, 0, 0, 0, 0]\nclass = 2", fillcolor="#9de539dd"] ;
31 -> 32 ;
33 [label="b <= -0.34\ngini = 0.44\nsamples = 3\nvalue = [2, 1, 0, 0, 0, 0]\nclass = 1", fillcolor="#e581397f"] ;
32 -> 33 ;
34 [label="gini = 0.0\nsamples = 1\nvalue = [0, 1, 0, 0, 0, 0]\nclass = 2", fillcolor="#9de539ff"] ;
33 -> 34 ;
35 [label="gini = 0.0\nsamples = 2\nvalue = [2, 0, 0, 0, 0, 0]\nclass = 1", fillcolor="#e58139ff"] ;
33 -> 35 ;
36 [label="gini = 0.0\nsamples = 10\nvalue = [0, 14, 0, 0, 0, 0]\nclass = 2", fillcolor="#9de539ff"] ;
32 -> 36 ;
37 [label="b <= -0.07\ngini = 0.53\nsamples = 5\nvalue = [2, 5, 1, 0, 0, 0]\nclass = 2", fillcolor="#9de53980"] ;
31 -> 37 ;
38 [label="a <= -1.06\ngini = 0.45\nsamples = 4\nvalue = [1, 5, 1, 0, 0, 0]\nclass = 2", fillcolor="#9de539aa"] ;
37 -> 38 ;
39 [label="gini = 0.0\nsamples = 1\nvalue = [0, 0, 1, 0, 0, 0]\nclass = 3", fillcolor="#39e581ff"] ;
38 -> 39 ;
40 [label="b <= -0.24\ngini = 0.28\nsamples = 3\nvalue = [1, 5, 0, 0, 0, 0]\nclass = 2", fillcolor="#9de539cc"] ;
38 -> 40 ;
41 [label="b <= -0.38\ngini = 0.44\nsamples = 2\nvalue = [1, 2, 0, 0, 0, 0]\nclass = 2", fillcolor="#9de5397f"] ;
40 -> 41 ;
42 [label="gini = 0.0\nsamples = 1\nvalue = [0, 2, 0, 0, 0, 0]\nclass = 2", fillcolor="#9de539ff"] ;
41 -> 42 ;
43 [label="gini = 0.0\nsamples = 1\nvalue = [1, 0, 0, 0, 0, 0]\nclass = 1", fillcolor="#e58139ff"] ;
41 -> 43 ;
44 [label="gini = 0.0\nsamples = 1\nvalue = [0, 3, 0, 0, 0, 0]\nclass = 2", fillcolor="#9de539ff"] ;
40 -> 44 ;
45 [label="gini = 0.0\nsamples = 1\nvalue = [1, 0, 0, 0, 0, 0]\nclass = 1", fillcolor="#e58139ff"] ;
37 -> 45 ;
46 [label="a <= -1.51\ngini = 0.62\nsamples = 3\nvalue = [2, 1, 0, 0, 0, 1]\nclass = 1", fillcolor="#e5813955"] ;
22 -> 46 ;
47 [label="a <= -2.18\ngini = 0.5\nsamples = 2\nvalue = [0, 1, 0, 0, 0, 1]\nclass = 2", fillcolor="#9de53900"] ;
46 -> 47 ;
48 [label="gini = 0.0\nsamples = 1\nvalue = [0, 0, 0, 0, 0, 1]\nclass = 6", fillcolor="#e5399dff"] ;
47 -> 48 ;
49 [label="gini = 0.0\nsamples = 1\nvalue = [0, 1, 0, 0, 0, 0]\nclass = 2", fillcolor="#9de539ff"] ;
47 -> 49 ;
50 [label="gini = 0.0\nsamples = 1\nvalue = [2, 0, 0, 0, 0, 0]\nclass = 1", fillcolor="#e58139ff"] ;
46 -> 50 ;
51 [label="b <= -0.19\ngini = 0.67\nsamples = 17\nvalue = [9, 8, 9, 0, 0, 0]\nclass = 1", fillcolor="#e5813900"] ;
21 -> 51 ;
52 [label="a <= -0.29\ngini = 0.61\nsamples = 11\nvalue = [9, 3, 7, 0, 0, 0]\nclass = 1", fillcolor="#e581392a"] ;
51 -> 52 ;
53 [label="b <= -0.31\ngini = 0.63\nsamples = 10\nvalue = [5, 3, 7, 0, 0, 0]\nclass = 3", fillcolor="#39e58133"] ;
52 -> 53 ;
54 [label="b <= -0.37\ngini = 0.57\nsamples = 8\nvalue = [2, 3, 7, 0, 0, 0]\nclass = 3", fillcolor="#39e58171"] ;
53 -> 54 ;
55 [label="a <= -0.72\ngini = 0.44\nsamples = 2\nvalue = [1, 2, 0, 0, 0, 0]\nclass = 2", fillcolor="#9de5397f"] ;
54 -> 55 ;
56 [label="gini = 0.0\nsamples = 1\nvalue = [1, 0, 0, 0, 0, 0]\nclass = 1", fillcolor="#e58139ff"] ;
55 -> 56 ;
57 [label="gini = 0.0\nsamples = 1\nvalue = [0, 2, 0, 0, 0, 0]\nclass = 2", fillcolor="#9de539ff"] ;
55 -> 57 ;
58 [label="a <= -0.69\ngini = 0.37\nsamples = 6\nvalue = [1, 1, 7, 0, 0, 0]\nclass = 3", fillcolor="#39e581bf"] ;
54 -> 58 ;
59 [label="b <= -0.36\ngini = 0.56\nsamples = 4\nvalue = [1, 1, 3, 0, 0, 0]\nclass = 3", fillcolor="#39e5817f"] ;
58 -> 59 ;
60 [label="gini = 0.0\nsamples = 1\nvalue = [1, 0, 0, 0, 0, 0]\nclass = 1", fillcolor="#e58139ff"] ;
59 -> 60 ;
61 [label="a <= -0.8\ngini = 0.38\nsamples = 3\nvalue = [0, 1, 3, 0, 0, 0]\nclass = 3", fillcolor="#39e581aa"] ;
59 -> 61 ;
62 [label="gini = 0.0\nsamples = 2\nvalue = [0, 0, 3, 0, 0, 0]\nclass = 3", fillcolor="#39e581ff"] ;
61 -> 62 ;
63 [label="gini = 0.0\nsamples = 1\nvalue = [0, 1, 0, 0, 0, 0]\nclass = 2", fillcolor="#9de539ff"] ;
61 -> 63 ;
64 [label="gini = 0.0\nsamples = 2\nvalue = [0, 0, 4, 0, 0, 0]\nclass = 3", fillcolor="#39e581ff"] ;
58 -> 64 ;
65 [label="gini = 0.0\nsamples = 2\nvalue = [3, 0, 0, 0, 0, 0]\nclass = 1", fillcolor="#e58139ff"] ;
53 -> 65 ;
66 [label="gini = 0.0\nsamples = 1\nvalue = [4, 0, 0, 0, 0, 0]\nclass = 1", fillcolor="#e58139ff"] ;
52 -> 66 ;
67 [label="a <= -0.92\ngini = 0.41\nsamples = 6\nvalue = [0, 5, 2, 0, 0, 0]\nclass = 2", fillcolor="#9de53999"] ;
51 -> 67 ;
68 [label="gini = 0.0\nsamples = 2\nvalue = [0, 0, 2, 0, 0, 0]\nclass = 3", fillcolor="#39e581ff"] ;
67 -> 68 ;
69 [label="gini = 0.0\nsamples = 4\nvalue = [0, 5, 0, 0, 0, 0]\nclass = 2", fillcolor="#9de539ff"] ;
67 -> 69 ;
70 [label="b <= 0.98\ngini = 0.74\nsamples = 25\nvalue = [0, 13, 0, 13, 8, 10]\nclass = 2", fillcolor="#9de53900"] ;
0 -> 70 [labeldistance=2.5, labelangle=-45, headlabel="False"] ;
71 [label="b <= 0.36\ngini = 0.65\nsamples = 15\nvalue = [0, 13, 0, 10, 7, 0]\nclass = 2", fillcolor="#9de53926"] ;
70 -> 71 ;
72 [label="a <= 2.14\ngini = 0.55\nsamples = 11\nvalue = [0, 13, 0, 8, 2, 0]\nclass = 2", fillcolor="#9de53955"] ;
71 -> 72 ;
73 [label="b <= -0.15\ngini = 0.41\nsamples = 5\nvalue = [0, 5, 0, 0, 2, 0]\nclass = 2", fillcolor="#9de53999"] ;
72 -> 73 ;
74 [label="gini = 0.0\nsamples = 3\nvalue = [0, 5, 0, 0, 0, 0]\nclass = 2", fillcolor="#9de539ff"] ;
73 -> 74 ;
75 [label="gini = 0.0\nsamples = 2\nvalue = [0, 0, 0, 0, 2, 0]\nclass = 5", fillcolor="#8139e5ff"] ;
73 -> 75 ;
76 [label="a <= 2.58\ngini = 0.5\nsamples = 6\nvalue = [0, 8, 0, 8, 0, 0]\nclass = 2", fillcolor="#9de53900"] ;
72 -> 76 ;
77 [label="gini = 0.0\nsamples = 2\nvalue = [0, 0, 0, 3, 0, 0]\nclass = 4", fillcolor="#399de5ff"] ;
76 -> 77 ;
78 [label="a <= 3.83\ngini = 0.47\nsamples = 4\nvalue = [0, 8, 0, 5, 0, 0]\nclass = 2", fillcolor="#9de53960"] ;
76 -> 78 ;
79 [label="gini = 0.0\nsamples = 2\nvalue = [0, 5, 0, 0, 0, 0]\nclass = 2", fillcolor="#9de539ff"] ;
78 -> 79 ;
80 [label="a <= 5.07\ngini = 0.47\nsamples = 2\nvalue = [0, 3, 0, 5, 0, 0]\nclass = 4", fillcolor="#399de566"] ;
78 -> 80 ;
81 [label="gini = 0.0\nsamples = 1\nvalue = [0, 0, 0, 5, 0, 0]\nclass = 4", fillcolor="#399de5ff"] ;
80 -> 81 ;
82 [label="gini = 0.0\nsamples = 1\nvalue = [0, 3, 0, 0, 0, 0]\nclass = 2", fillcolor="#9de539ff"] ;
80 -> 82 ;
83 [label="b <= 0.75\ngini = 0.41\nsamples = 4\nvalue = [0, 0, 0, 2, 5, 0]\nclass = 5", fillcolor="#8139e599"] ;
71 -> 83 ;
84 [label="gini = 0.0\nsamples = 3\nvalue = [0, 0, 0, 0, 5, 0]\nclass = 5", fillcolor="#8139e5ff"] ;
83 -> 84 ;
85 [label="gini = 0.0\nsamples = 1\nvalue = [0, 0, 0, 2, 0, 0]\nclass = 4", fillcolor="#399de5ff"] ;
83 -> 85 ;
86 [label="b <= 3.02\ngini = 0.44\nsamples = 10\nvalue = [0, 0, 0, 3, 1, 10]\nclass = 6", fillcolor="#e5399da2"] ;
70 -> 86 ;
87 [label="gini = 0.0\nsamples = 7\nvalue = [0, 0, 0, 0, 0, 10]\nclass = 6", fillcolor="#e5399dff"] ;
86 -> 87 ;
88 [label="a <= 0.3\ngini = 0.38\nsamples = 3\nvalue = [0, 0, 0, 3, 1, 0]\nclass = 4", fillcolor="#399de5aa"] ;
86 -> 88 ;
89 [label="gini = 0.0\nsamples = 2\nvalue = [0, 0, 0, 3, 0, 0]\nclass = 4", fillcolor="#399de5ff"] ;
88 -> 89 ;
90 [label="gini = 0.0\nsamples = 1\nvalue = [0, 0, 0, 0, 1, 0]\nclass = 5", fillcolor="#8139e5ff"] ;
88 -> 90 ;
}